<?xml version="1.0"?>
<opencv_storage>
<cascade>
  <stageType>BOOST</stageType>
  <featureType>HAAR</featureType>
  <height>16</height>
  <width>24</width>
  <stageParams>
    <boostType>GAB</boostType>
    <minHitRate>9.9500000476837158e-01</minHitRate>
    <maxFalseAlarm>5.0000000000000000e-01</maxFalseAlarm>
    <weightTrimRate>9.4999998807907104e-01</weightTrimRate>
    <maxDepth>1</maxDepth>
    <maxWeakCount>100</maxWeakCount></stageParams>
  <featureParams>
    <maxCatCount>0</maxCatCount>
    <featSize>1</featSize>
    <mode>BASIC</mode></featureParams>
  <stageNum>3</stageNum>
  <stages>
    <!-- stage 0 -->
    <_>
      <maxWeakCount>4</maxWeakCount>
      <stageThreshold>-2.3089497089385986e+00</stageThreshold>
      <weakClassifiers>
        <_>
          <internalNodes>
            0 -1 2 4.0203440189361572e-01</internalNodes>
          <leafValues>
            -9.6165579557418823e-01 7.5172412395477295e-01</leafValues></_>
        <_>
          <internalNodes>
            0 -1 3 2.8831684589385986e-01</internalNodes>
          <leafValues>
            -9.8135131597518921e-01 4.4117537140846252e-01</leafValues></_>
        <_>
          <internalNodes>
            0 -1 6 1.4441290404647589e-03</internalNodes>
          <leafValues>
            -9.1123491525650024e-01 5.3357368707656860e-01</leafValues></_>
        <_>
          <internalNodes>
            0 -1 0 6.4099980518221855e-03</internalNodes>
          <leafValues>
            -9.9204689264297485e-01 5.4529237747192383e-01</leafValues></_></weakClassifiers></_>
    <!-- stage 1 -->
    <_>
      <maxWeakCount>3</maxWeakCount>
      <stageThreshold>-1.4328560829162598e+00</stageThreshold>
      <weakClassifiers>
        <_>
          <internalNodes>
            0 -1 1 1.9658911228179932e-01</internalNodes>
          <leafValues>
            -9.6895790100097656e-01 4.7027027606964111e-01</leafValues></_>
        <_>
          <internalNodes>
            0 -1 8 2.4223127402365208e-03</internalNodes>
          <leafValues>
            -9.6431553363800049e-01 5.0217068195343018e-01</leafValues></_>
        <_>
          <internalNodes>
            0 -1 7 4.2658215388655663e-03</internalNodes>
          <leafValues>
            -1. 5.0041729211807251e-01</leafValues></_></weakClassifiers></_>
    <!-- stage 2 -->
    <_>
      <maxWeakCount>2</maxWeakCount>
      <stageThreshold>1.0521700605750084e-02</stageThreshold>
      <weakClassifiers>
        <_>
          <internalNodes>
            0 -1 5 -4.8640798777341843e-03</internalNodes>
          <leafValues>
            1. -9.8947829008102417e-01</leafValues></_>
        <_>
          <internalNodes>
            0 -1 4 7.6812334358692169e-02</internalNodes>
          <leafValues>
            -9.8614120483398438e-01 1.</leafValues></_></weakClassifiers></_></stages>
  <features>
    <_>
      <rects>
        <_>
          0 2 2 13 -1.</_>
        <_>
          1 2 1 13 2.</_></rects>
      <tilted>0</tilted></_>
    <_>
      <rects>
        <_>
          0 4 16 8 -1.</_>
        <_>
          8 4 8 8 2.</_></rects>
      <tilted>0</tilted></_>
    <_>
      <rects>
        <_>
          0 4 24 9 -1.</_>
        <_>
          8 4 8 9 3.</_></rects>
      <tilted>0</tilted></_>
    <_>
      <rects>
        <_>
          1 0 23 10 -1.</_>
        <_>
          1 5 23 5 2.</_></rects>
      <tilted>0</tilted></_>
    <_>
      <rects>
        <_>
          1 1 12 11 -1.</_>
        <_>
          7 1 6 11 2.</_></rects>
      <tilted>0</tilted></_>
    <_>
      <rects>
        <_>
          20 7 4 2 -1.</_>
        <_>
          22 7 2 2 2.</_></rects>
      <tilted>0</tilted></_>
    <_>
      <rects>
        <_>
          22 5 2 1 -1.</_>
        <_>
          23 5 1 1 2.</_></rects>
      <tilted>0</tilted></_>
    <_>
      <rects>
        <_>
          23 2 1 4 -1.</_>
        <_>
          23 4 1 2 2.</_></rects>
      <tilted>0</tilted></_>
    <_>
      <rects>
        <_>
          23 13 1 2 -1.</_>
        <_>
          23 14 1 1 2.</_></rects>
      <tilted>0</tilted></_></features></cascade>
</opencv_storage>
