<?xml version="1.0"?>
<opencv_storage>
<cascade>
  <stageType>BOOST</stageType>
  <featureType>HAAR</featureType>
  <height>24</height>
  <width>24</width>
  <stageParams>
    <boostType>GAB</boostType>
    <minHitRate>9.9500000476837158e-01</minHitRate>
    <maxFalseAlarm>5.0000000000000000e-01</maxFalseAlarm>
    <weightTrimRate>9.4999998807907104e-01</weightTrimRate>
    <maxDepth>1</maxDepth>
    <maxWeakCount>100</maxWeakCount></stageParams>
  <featureParams>
    <maxCatCount>0</maxCatCount>
    <featSize>1</featSize>
    <mode>BASIC</mode></featureParams>
  <stageNum>15</stageNum>
  <stages>
    <!-- stage 0 -->
    <_>
      <maxWeakCount>4</maxWeakCount>
      <stageThreshold>-3.2053864002227783e-01</stageThreshold>
      <weakClassifiers>
        <_>
          <internalNodes>
            0 -1 4 8.2763478159904480e-02</internalNodes>
          <leafValues>
            -8.4516131877899170e-01 5.7462686300277710e-01</leafValues></_>
        <_>
          <internalNodes>
            0 -1 10 1.0493122041225433e-01</internalNodes>
          <leafValues>
            -4.5760548114776611e-01 9.2317956686019897e-01</leafValues></_>
        <_>
          <internalNodes>
            0 -1 52 5.5207207333296537e-04</internalNodes>
          <leafValues>
            -8.3888107538223267e-01 4.9944728612899780e-01</leafValues></_>
        <_>
          <internalNodes>
            0 -1 2 9.5102846622467041e-02</internalNodes>
          <leafValues>
            -7.5129473209381104e-01 4.8278084397315979e-01</leafValues></_></weakClassifiers></_>
    <!-- stage 1 -->
    <_>
      <maxWeakCount>3</maxWeakCount>
      <stageThreshold>-1.0656713247299194e+00</stageThreshold>
      <weakClassifiers>
        <_>
          <internalNodes>
            0 -1 48 2.2561056539416313e-04</internalNodes>
          <leafValues>
            5.0522649288177490e-01 -8.9705884456634521e-01</leafValues></_>
        <_>
          <internalNodes>
            0 -1 40 3.2715767156332731e-04</internalNodes>
          <leafValues>
            -7.4334067106246948e-01 3.4993311762809753e-01</leafValues></_>
        <_>
          <internalNodes>
            0 -1 7 1.3242866843938828e-03</internalNodes>
          <leafValues>
            3.2848694920539856e-01 -8.2755708694458008e-01</leafValues></_></weakClassifiers></_>
    <!-- stage 2 -->
    <_>
      <maxWeakCount>4</maxWeakCount>
      <stageThreshold>-4.0605187416076660e-01</stageThreshold>
      <weakClassifiers>
        <_>
          <internalNodes>
            0 -1 8 1.0150799527764320e-02</internalNodes>
          <leafValues>
            -6.3440859317779541e-01 5.9493672847747803e-01</leafValues></_>
        <_>
          <internalNodes>
            0 -1 29 1.9382459577172995e-03</internalNodes>
          <leafValues>
            3.8643702864646912e-01 -7.5051343441009521e-01</leafValues></_>
        <_>
          <internalNodes>
            0 -1 27 8.9573189616203308e-02</internalNodes>
          <leafValues>
            -4.6858236193656921e-01 7.4162453413009644e-01</leafValues></_>
        <_>
          <internalNodes>
            0 -1 20 -4.2081209830939770e-03</internalNodes>
          <leafValues>
            -8.9970487356185913e-01 4.5153078436851501e-01</leafValues></_></weakClassifiers></_>
    <!-- stage 3 -->
    <_>
      <maxWeakCount>4</maxWeakCount>
      <stageThreshold>-2.9493716359138489e-01</stageThreshold>
      <weakClassifiers>
        <_>
          <internalNodes>
            0 -1 43 -1.0426960652694106e-03</internalNodes>
          <leafValues>
            6.6244727373123169e-01 -7.2043013572692871e-01</leafValues></_>
        <_>
          <internalNodes>
            0 -1 36 2.0890770480036736e-02</internalNodes>
          <leafValues>
            -5.3947567939758301e-01 8.2522320747375488e-01</leafValues></_>
        <_>
          <internalNodes>
            0 -1 50 3.5530286841094494e-03</internalNodes>
          <leafValues>
            4.8278129100799561e-01 -8.3093965053558350e-01</leafValues></_>
        <_>
          <internalNodes>
            0 -1 46 4.1420633351663128e-05</internalNodes>
          <leafValues>
            4.8218730092048645e-01 -7.7267986536026001e-01</leafValues></_></weakClassifiers></_>
    <!-- stage 4 -->
    <_>
      <maxWeakCount>3</maxWeakCount>
      <stageThreshold>9.2867113649845123e-02</stageThreshold>
      <weakClassifiers>
        <_>
          <internalNodes>
            0 -1 6 4.6542929485440254e-03</internalNodes>
          <leafValues>
            -9.3197280168533325e-01 5.7971012592315674e-01</leafValues></_>
        <_>
          <internalNodes>
            0 -1 15 3.8671584334224463e-03</internalNodes>
          <leafValues>
            5.3040909767150879e-01 -8.3879905939102173e-01</leafValues></_>
        <_>
          <internalNodes>
            0 -1 9 1.4016067143529654e-04</internalNodes>
          <leafValues>
            -9.0104568004608154e-01 4.9443081021308899e-01</leafValues></_></weakClassifiers></_>
    <!-- stage 5 -->
    <_>
      <maxWeakCount>5</maxWeakCount>
      <stageThreshold>-6.5944367647171021e-01</stageThreshold>
      <weakClassifiers>
        <_>
          <internalNodes>
            0 -1 26 7.4405506253242493e-02</internalNodes>
          <leafValues>
            -5.2941179275512695e-01 6.9306927919387817e-01</leafValues></_>
        <_>
          <internalNodes>
            0 -1 39 -2.5468203239142895e-04</internalNodes>
          <leafValues>
            5.9647518396377563e-01 -6.0565382242202759e-01</leafValues></_>
        <_>
          <internalNodes>
            0 -1 51 -1.5871584764681756e-05</internalNodes>
          <leafValues>
            5.1147300004959106e-01 -7.5313365459442139e-01</leafValues></_>
        <_>
          <internalNodes>
            0 -1 37 9.7030345350503922e-03</internalNodes>
          <leafValues>
            -3.7373033165931702e-01 9.3391221761703491e-01</leafValues></_>
        <_>
          <internalNodes>
            0 -1 24 1.4806021936237812e-03</internalNodes>
          <leafValues>
            4.0035688877105713e-01 -9.4225746393203735e-01</leafValues></_></weakClassifiers></_>
    <!-- stage 6 -->
    <_>
      <maxWeakCount>3</maxWeakCount>
      <stageThreshold>-8.2069236040115356e-01</stageThreshold>
      <weakClassifiers>
        <_>
          <internalNodes>
            0 -1 5 8.7817683815956116e-02</internalNodes>
          <leafValues>
            -7.3809522390365601e-01 5.7647061347961426e-01</leafValues></_>
        <_>
          <internalNodes>
            0 -1 38 -1.8943168688565493e-03</internalNodes>
          <leafValues>
            -9.4299250841140747e-01 3.8005974888801575e-01</leafValues></_>
        <_>
          <internalNodes>
            0 -1 30 -2.2247772663831711e-02</internalNodes>
          <leafValues>
            7.8823679685592651e-01 -4.6265685558319092e-01</leafValues></_></weakClassifiers></_>
    <!-- stage 7 -->
    <_>
      <maxWeakCount>4</maxWeakCount>
      <stageThreshold>-3.8478347659111023e-01</stageThreshold>
      <weakClassifiers>
        <_>
          <internalNodes>
            0 -1 0 1.0592517256736755e-01</internalNodes>
          <leafValues>
            -7.2000002861022949e-01 7.4887889623641968e-01</leafValues></_>
        <_>
          <internalNodes>
            0 -1 3 -3.0292853713035583e-02</internalNodes>
          <leafValues>
            -8.5961419343948364e-01 4.2945644259452820e-01</leafValues></_>
        <_>
          <internalNodes>
            0 -1 22 2.2508233785629272e-02</internalNodes>
          <leafValues>
            -5.9507691860198975e-01 7.5258654356002808e-01</leafValues></_>
        <_>
          <internalNodes>
            0 -1 41 9.9865625088568777e-05</internalNodes>
          <leafValues>
            5.0083696842193604e-01 -7.0531272888183594e-01</leafValues></_></weakClassifiers></_>
    <!-- stage 8 -->
    <_>
      <maxWeakCount>4</maxWeakCount>
      <stageThreshold>-1.2513999938964844e+00</stageThreshold>
      <weakClassifiers>
        <_>
          <internalNodes>
            0 -1 13 -2.0595110952854156e-02</internalNodes>
          <leafValues>
            7.8651684522628784e-01 -4.7755101323127747e-01</leafValues></_>
        <_>
          <internalNodes>
            0 -1 23 1.4239111915230751e-02</internalNodes>
          <leafValues>
            -7.9830002784729004e-01 5.4583734273910522e-01</leafValues></_>
        <_>
          <internalNodes>
            0 -1 49 5.1835224439855665e-05</internalNodes>
          <leafValues>
            6.2743580341339111e-01 -7.0172613859176636e-01</leafValues></_>
        <_>
          <internalNodes>
            0 -1 33 1.0579291265457869e-03</internalNodes>
          <leafValues>
            6.0476231575012207e-01 -6.1796021461486816e-01</leafValues></_></weakClassifiers></_>
    <!-- stage 9 -->
    <_>
      <maxWeakCount>2</maxWeakCount>
      <stageThreshold>-3.6879438906908035e-02</stageThreshold>
      <weakClassifiers>
        <_>
          <internalNodes>
            0 -1 21 5.1900488324463367e-04</internalNodes>
          <leafValues>
            9.0654206275939941e-01 -8.1818181276321411e-01</leafValues></_>
        <_>
          <internalNodes>
            0 -1 1 -1.2527790386229753e-03</internalNodes>
          <leafValues>
            -9.4342148303985596e-01 8.2890945672988892e-01</leafValues></_></weakClassifiers></_>
    <!-- stage 10 -->
    <_>
      <maxWeakCount>4</maxWeakCount>
      <stageThreshold>-5.6629461050033569e-01</stageThreshold>
      <weakClassifiers>
        <_>
          <internalNodes>
            0 -1 18 3.3510943467263132e-05</internalNodes>
          <leafValues>
            -7.9104477167129517e-01 4.4636678695678711e-01</leafValues></_>
        <_>
          <internalNodes>
            0 -1 32 3.4708911553025246e-03</internalNodes>
          <leafValues>
            -5.0825464725494385e-01 5.7167416810989380e-01</leafValues></_>
        <_>
          <internalNodes>
            0 -1 34 -2.6836741715669632e-02</internalNodes>
          <leafValues>
            5.4883849620819092e-01 -5.9321027994155884e-01</leafValues></_>
        <_>
          <internalNodes>
            0 -1 44 -6.5797887509688735e-04</internalNodes>
          <leafValues>
            -8.9576250314712524e-01 4.4862234592437744e-01</leafValues></_></weakClassifiers></_>
    <!-- stage 11 -->
    <_>
      <maxWeakCount>3</maxWeakCount>
      <stageThreshold>-9.0773403644561768e-01</stageThreshold>
      <weakClassifiers>
        <_>
          <internalNodes>
            0 -1 45 1.5362160047516227e-04</internalNodes>
          <leafValues>
            4.5578232407569885e-01 -8.6046510934829712e-01</leafValues></_>
        <_>
          <internalNodes>
            0 -1 14 1.3145503401756287e-01</internalNodes>
          <leafValues>
            -6.1852633953094482e-01 5.3953158855438232e-01</leafValues></_>
        <_>
          <internalNodes>
            0 -1 17 6.7532804678194225e-05</internalNodes>
          <leafValues>
            -7.4498999118804932e-01 4.6619540452957153e-01</leafValues></_></weakClassifiers></_>
    <!-- stage 12 -->
    <_>
      <maxWeakCount>5</maxWeakCount>
      <stageThreshold>-9.3105137348175049e-01</stageThreshold>
      <weakClassifiers>
        <_>
          <internalNodes>
            0 -1 53 2.9264254408190027e-05</internalNodes>
          <leafValues>
            -8.1954884529113770e-01 4.5517241954803467e-01</leafValues></_>
        <_>
          <internalNodes>
            0 -1 25 1.4203708851709962e-03</internalNodes>
          <leafValues>
            -6.5260082483291626e-01 5.2198052406311035e-01</leafValues></_>
        <_>
          <internalNodes>
            0 -1 11 8.9032913092523813e-04</internalNodes>
          <leafValues>
            5.4296386241912842e-01 -7.0583546161651611e-01</leafValues></_>
        <_>
          <internalNodes>
            0 -1 42 3.9877550443634391e-04</internalNodes>
          <leafValues>
            5.2546280622482300e-01 -7.7613914012908936e-01</leafValues></_>
        <_>
          <internalNodes>
            0 -1 16 1.1312457174062729e-01</internalNodes>
          <leafValues>
            -4.5311042666435242e-01 9.6617770195007324e-01</leafValues></_></weakClassifiers></_>
    <!-- stage 13 -->
    <_>
      <maxWeakCount>3</maxWeakCount>
      <stageThreshold>-5.6198036670684814e-01</stageThreshold>
      <weakClassifiers>
        <_>
          <internalNodes>
            0 -1 28 -2.8891507536172867e-03</internalNodes>
          <leafValues>
            -6.8518519401550293e-01 8.2608693838119507e-01</leafValues></_>
        <_>
          <internalNodes>
            0 -1 31 1.5820596308913082e-04</internalNodes>
          <leafValues>
            6.9441521167755127e-01 -7.0545965433120728e-01</leafValues></_>
        <_>
          <internalNodes>
            0 -1 35 4.8840272938832641e-05</internalNodes>
          <leafValues>
            9.3719905614852905e-01 -5.7121044397354126e-01</leafValues></_></weakClassifiers></_>
    <!-- stage 14 -->
    <_>
      <maxWeakCount>3</maxWeakCount>
      <stageThreshold>-1.8982465565204620e-01</stageThreshold>
      <weakClassifiers>
        <_>
          <internalNodes>
            0 -1 47 6.2094200984574854e-05</internalNodes>
          <leafValues>
            -6.5289258956909180e-01 1.</leafValues></_>
        <_>
          <internalNodes>
            0 -1 19 3.2026885310187936e-04</internalNodes>
          <leafValues>
            -5.0354063510894775e-01 1.</leafValues></_>
        <_>
          <internalNodes>
            0 -1 12 4.4398132013157010e-04</internalNodes>
          <leafValues>
            -5.3693211078643799e-01 1.</leafValues></_></weakClassifiers></_></stages>
  <features>
    <_>
      <rects>
        <_>
          0 1 18 17 -1.</_>
        <_>
          9 1 9 17 2.</_></rects>
      <tilted>0</tilted></_>
    <_>
      <rects>
        <_>
          0 2 10 8 -1.</_>
        <_>
          5 2 5 8 2.</_></rects>
      <tilted>0</tilted></_>
    <_>
      <rects>
        <_>
          0 3 21 21 -1.</_>
        <_>
          0 10 21 7 3.</_></rects>
      <tilted>0</tilted></_>
    <_>
      <rects>
        <_>
          0 6 24 4 -1.</_>
        <_>
          12 6 12 4 2.</_></rects>
      <tilted>0</tilted></_>
    <_>
      <rects>
        <_>
          0 7 14 17 -1.</_>
        <_>
          7 7 7 17 2.</_></rects>
      <tilted>0</tilted></_>
    <_>
      <rects>
        <_>
          0 7 16 11 -1.</_>
        <_>
          8 7 8 11 2.</_></rects>
      <tilted>0</tilted></_>
    <_>
      <rects>
        <_>
          0 10 6 9 -1.</_>
        <_>
          3 10 3 9 2.</_></rects>
      <tilted>0</tilted></_>
    <_>
      <rects>
        <_>
          1 4 6 1 -1.</_>
        <_>
          4 4 3 1 2.</_></rects>
      <tilted>0</tilted></_>
    <_>
      <rects>
        <_>
          1 14 6 5 -1.</_>
        <_>
          4 14 3 5 2.</_></rects>
      <tilted>0</tilted></_>
    <_>
      <rects>
        <_>
          2 4 2 11 -1.</_>
        <_>
          3 4 1 11 2.</_></rects>
      <tilted>0</tilted></_>
    <_>
      <rects>
        <_>
          2 12 18 12 -1.</_>
        <_>
          2 16 18 4 3.</_></rects>
      <tilted>0</tilted></_>
    <_>
      <rects>
        <_>
          3 3 3 14 -1.</_>
        <_>
          4 3 1 14 3.</_></rects>
      <tilted>0</tilted></_>
    <_>
      <rects>
        <_>
          3 13 15 3 -1.</_>
        <_>
          3 14 15 1 3.</_></rects>
      <tilted>0</tilted></_>
    <_>
      <rects>
        <_>
          4 0 15 15 -1.</_>
        <_>
          4 5 15 5 3.</_></rects>
      <tilted>0</tilted></_>
    <_>
      <rects>
        <_>
          4 9 17 15 -1.</_>
        <_>
          4 14 17 5 3.</_></rects>
      <tilted>0</tilted></_>
    <_>
      <rects>
        <_>
          5 3 8 2 -1.</_>
        <_>
          9 3 4 2 2.</_></rects>
      <tilted>0</tilted></_>
    <_>
      <rects>
        <_>
          5 7 12 12 -1.</_>
        <_>
          5 13 12 6 2.</_></rects>
      <tilted>0</tilted></_>
    <_>
      <rects>
        <_>
          5 12 2 1 -1.</_>
        <_>
          6 12 1 1 2.</_></rects>
      <tilted>0</tilted></_>
    <_>
      <rects>
        <_>
          5 16 2 1 -1.</_>
        <_>
          6 16 1 1 2.</_></rects>
      <tilted>0</tilted></_>
    <_>
      <rects>
        <_>
          6 14 2 3 -1.</_>
        <_>
          7 14 1 3 2.</_></rects>
      <tilted>0</tilted></_>
    <_>
      <rects>
        <_>
          7 1 16 1 -1.</_>
        <_>
          15 1 8 1 2.</_></rects>
      <tilted>0</tilted></_>
    <_>
      <rects>
        <_>
          7 2 16 2 -1.</_>
        <_>
          7 2 8 1 2.</_>
        <_>
          15 3 8 1 2.</_></rects>
      <tilted>0</tilted></_>
    <_>
      <rects>
        <_>
          7 5 12 13 -1.</_>
        <_>
          11 5 4 13 3.</_></rects>
      <tilted>0</tilted></_>
    <_>
      <rects>
        <_>
          9 0 15 24 -1.</_>
        <_>
          14 0 5 24 3.</_></rects>
      <tilted>0</tilted></_>
    <_>
      <rects>
        <_>
          9 1 12 1 -1.</_>
        <_>
          13 1 4 1 3.</_></rects>
      <tilted>0</tilted></_>
    <_>
      <rects>
        <_>
          9 22 14 2 -1.</_>
        <_>
          16 22 7 2 2.</_></rects>
      <tilted>0</tilted></_>
    <_>
      <rects>
        <_>
          10 9 9 15 -1.</_>
        <_>
          10 14 9 5 3.</_></rects>
      <tilted>0</tilted></_>
    <_>
      <rects>
        <_>
          10 12 11 12 -1.</_>
        <_>
          10 16 11 4 3.</_></rects>
      <tilted>0</tilted></_>
    <_>
      <rects>
        <_>
          10 23 14 1 -1.</_>
        <_>
          17 23 7 1 2.</_></rects>
      <tilted>0</tilted></_>
    <_>
      <rects>
        <_>
          12 1 12 2 -1.</_>
        <_>
          16 1 4 2 3.</_></rects>
      <tilted>0</tilted></_>
    <_>
      <rects>
        <_>
          12 14 12 2 -1.</_>
        <_>
          18 14 6 2 2.</_></rects>
      <tilted>0</tilted></_>
    <_>
      <rects>
        <_>
          12 16 3 2 -1.</_>
        <_>
          13 16 1 2 3.</_></rects>
      <tilted>0</tilted></_>
    <_>
      <rects>
        <_>
          12 23 12 1 -1.</_>
        <_>
          18 23 6 1 2.</_></rects>
      <tilted>0</tilted></_>
    <_>
      <rects>
        <_>
          13 0 11 9 -1.</_>
        <_>
          13 3 11 3 3.</_></rects>
      <tilted>0</tilted></_>
    <_>
      <rects>
        <_>
          13 9 10 8 -1.</_>
        <_>
          18 9 5 8 2.</_></rects>
      <tilted>0</tilted></_>
    <_>
      <rects>
        <_>
          14 2 6 6 -1.</_>
        <_>
          16 2 2 6 3.</_></rects>
      <tilted>0</tilted></_>
    <_>
      <rects>
        <_>
          15 0 1 20 -1.</_>
        <_>
          15 10 1 10 2.</_></rects>
      <tilted>0</tilted></_>
    <_>
      <rects>
        <_>
          16 13 6 8 -1.</_>
        <_>
          16 13 3 4 2.</_>
        <_>
          19 17 3 4 2.</_></rects>
      <tilted>0</tilted></_>
    <_>
      <rects>
        <_>
          17 0 6 4 -1.</_>
        <_>
          17 2 6 2 2.</_></rects>
      <tilted>0</tilted></_>
    <_>
      <rects>
        <_>
          17 2 6 9 -1.</_>
        <_>
          17 5 6 3 3.</_></rects>
      <tilted>0</tilted></_>
    <_>
      <rects>
        <_>
          18 13 6 2 -1.</_>
        <_>
          18 14 6 1 2.</_></rects>
      <tilted>0</tilted></_>
    <_>
      <rects>
        <_>
          19 7 3 3 -1.</_>
        <_>
          19 8 3 1 3.</_></rects>
      <tilted>0</tilted></_>
    <_>
      <rects>
        <_>
          20 0 3 7 -1.</_>
        <_>
          21 0 1 7 3.</_></rects>
      <tilted>0</tilted></_>
    <_>
      <rects>
        <_>
          20 0 4 12 -1.</_>
        <_>
          20 0 2 6 2.</_>
        <_>
          22 6 2 6 2.</_></rects>
      <tilted>0</tilted></_>
    <_>
      <rects>
        <_>
          21 5 2 4 -1.</_>
        <_>
          22 5 1 4 2.</_></rects>
      <tilted>0</tilted></_>
    <_>
      <rects>
        <_>
          21 7 3 2 -1.</_>
        <_>
          22 7 1 2 3.</_></rects>
      <tilted>0</tilted></_>
    <_>
      <rects>
        <_>
          21 9 3 2 -1.</_>
        <_>
          22 9 1 2 3.</_></rects>
      <tilted>0</tilted></_>
    <_>
      <rects>
        <_>
          21 12 2 2 -1.</_>
        <_>
          21 13 2 1 2.</_></rects>
      <tilted>0</tilted></_>
    <_>
      <rects>
        <_>
          22 2 2 14 -1.</_>
        <_>
          23 2 1 14 2.</_></rects>
      <tilted>0</tilted></_>
    <_>
      <rects>
        <_>
          22 5 1 9 -1.</_>
        <_>
          22 8 1 3 3.</_></rects>
      <tilted>0</tilted></_>
    <_>
      <rects>
        <_>
          22 8 2 15 -1.</_>
        <_>
          22 13 2 5 3.</_></rects>
      <tilted>0</tilted></_>
    <_>
      <rects>
        <_>
          22 9 1 9 -1.</_>
        <_>
          22 12 1 3 3.</_></rects>
      <tilted>0</tilted></_>
    <_>
      <rects>
        <_>
          22 13 2 8 -1.</_>
        <_>
          22 17 2 4 2.</_></rects>
      <tilted>0</tilted></_>
    <_>
      <rects>
        <_>
          22 14 2 2 -1.</_>
        <_>
          22 15 2 1 2.</_></rects>
      <tilted>0</tilted></_></features></cascade>
</opencv_storage>
