<?xml version="1.0"?>
<opencv_storage>
<cascade>
  <stageType>BOOST</stageType>
  <featureType>HAAR</featureType>
  <height>38</height>
  <width>38</width>
  <stageParams>
    <boostType>GAB</boostType>
    <minHitRate>9.9500000476837158e-01</minHitRate>
    <maxFalseAlarm>5.0000000000000000e-01</maxFalseAlarm>
    <weightTrimRate>9.4999998807907104e-01</weightTrimRate>
    <maxDepth>1</maxDepth>
    <maxWeakCount>100</maxWeakCount></stageParams>
  <featureParams>
    <maxCatCount>0</maxCatCount>
    <featSize>1</featSize>
    <mode>BASIC</mode></featureParams>
  <stageNum>4</stageNum>
  <stages>
    <!-- stage 0 -->
    <_>
      <maxWeakCount>4</maxWeakCount>
      <stageThreshold>-8.2274651527404785e-01</stageThreshold>
      <weakClassifiers>
        <_>
          <internalNodes>
            0 -1 10 2.4066264741122723e-03</internalNodes>
          <leafValues>
            -7.1891891956329346e-01 6.5972220897674561e-01</leafValues></_>
        <_>
          <internalNodes>
            0 -1 3 5.7163070887327194e-03</internalNodes>
          <leafValues>
            -8.2599878311157227e-01 5.1236355304718018e-01</leafValues></_>
        <_>
          <internalNodes>
            0 -1 8 -7.6545646879822016e-04</internalNodes>
          <leafValues>
            -1. 3.4235355257987976e-01</leafValues></_>
        <_>
          <internalNodes>
            0 -1 9 -8.1115076318383217e-04</internalNodes>
          <leafValues>
            3.7981766462326050e-01 -7.5999265909194946e-01</leafValues></_></weakClassifiers></_>
    <!-- stage 1 -->
    <_>
      <maxWeakCount>4</maxWeakCount>
      <stageThreshold>-1.9560836255550385e-01</stageThreshold>
      <weakClassifiers>
        <_>
          <internalNodes>
            0 -1 2 9.0033579617738724e-03</internalNodes>
          <leafValues>
            -5.3982299566268921e-01 7.2469633817672729e-01</leafValues></_>
        <_>
          <internalNodes>
            0 -1 6 5.5531440302729607e-03</internalNodes>
          <leafValues>
            4.0777960419654846e-01 -1.</leafValues></_>
        <_>
          <internalNodes>
            0 -1 1 1.7035942524671555e-02</internalNodes>
          <leafValues>
            -8.8454329967498779e-01 4.2531576752662659e-01</leafValues></_>
        <_>
          <internalNodes>
            0 -1 12 -7.2783802170306444e-04</internalNodes>
          <leafValues>
            9.3180936574935913e-01 -4.4354102015495300e-01</leafValues></_></weakClassifiers></_>
    <!-- stage 2 -->
    <_>
      <maxWeakCount>3</maxWeakCount>
      <stageThreshold>-8.3506351709365845e-01</stageThreshold>
      <weakClassifiers>
        <_>
          <internalNodes>
            0 -1 5 -1.8416855018585920e-03</internalNodes>
          <leafValues>
            -8.9690721035003662e-01 8.2795697450637817e-01</leafValues></_>
        <_>
          <internalNodes>
            0 -1 11 1.7377071344526485e-05</internalNodes>
          <leafValues>
            1. -6.9162529706954956e-01</leafValues></_>
        <_>
          <internalNodes>
            0 -1 0 -4.3441904708743095e-03</internalNodes>
          <leafValues>
            -1. 7.5346899032592773e-01</leafValues></_></weakClassifiers></_>
    <!-- stage 3 -->
    <_>
      <maxWeakCount>2</maxWeakCount>
      <stageThreshold>2.8436018154025078e-02</stageThreshold>
      <weakClassifiers>
        <_>
          <internalNodes>
            0 -1 7 -1.9629797898232937e-03</internalNodes>
          <leafValues>
            -9.7156399488449097e-01 1.</leafValues></_>
        <_>
          <internalNodes>
            0 -1 4 -1.6083766240626574e-03</internalNodes>
          <leafValues>
            -9.6330267190933228e-01 1.</leafValues></_></weakClassifiers></_></stages>
  <features>
    <_>
      <rects>
        <_>
          0 7 4 31 -1.</_>
        <_>
          2 7 2 31 2.</_></rects>
      <tilted>0</tilted></_>
    <_>
      <rects>
        <_>
          0 18 14 13 -1.</_>
        <_>
          7 18 7 13 2.</_></rects>
      <tilted>0</tilted></_>
    <_>
      <rects>
        <_>
          0 25 28 1 -1.</_>
        <_>
          14 25 14 1 2.</_></rects>
      <tilted>0</tilted></_>
    <_>
      <rects>
        <_>
          4 14 8 14 -1.</_>
        <_>
          8 14 4 14 2.</_></rects>
      <tilted>0</tilted></_>
    <_>
      <rects>
        <_>
          9 37 8 1 -1.</_>
        <_>
          13 37 4 1 2.</_></rects>
      <tilted>0</tilted></_>
    <_>
      <rects>
        <_>
          16 5 22 1 -1.</_>
        <_>
          27 5 11 1 2.</_></rects>
      <tilted>0</tilted></_>
    <_>
      <rects>
        <_>
          18 0 14 3 -1.</_>
        <_>
          25 0 7 3 2.</_></rects>
      <tilted>0</tilted></_>
    <_>
      <rects>
        <_>
          20 5 18 1 -1.</_>
        <_>
          29 5 9 1 2.</_></rects>
      <tilted>0</tilted></_>
    <_>
      <rects>
        <_>
          22 2 2 10 -1.</_>
        <_>
          22 7 2 5 2.</_></rects>
      <tilted>0</tilted></_>
    <_>
      <rects>
        <_>
          32 0 6 20 -1.</_>
        <_>
          32 0 3 10 2.</_>
        <_>
          35 10 3 10 2.</_></rects>
      <tilted>0</tilted></_>
    <_>
      <rects>
        <_>
          33 18 5 12 -1.</_>
        <_>
          33 24 5 6 2.</_></rects>
      <tilted>0</tilted></_>
    <_>
      <rects>
        <_>
          34 14 1 9 -1.</_>
        <_>
          34 17 1 3 3.</_></rects>
      <tilted>0</tilted></_>
    <_>
      <rects>
        <_>
          34 15 3 4 -1.</_>
        <_>
          35 15 1 4 3.</_></rects>
      <tilted>0</tilted></_></features></cascade>
</opencv_storage>
