<?xml version="1.0"?>
<opencv_storage>
<cascade>
  <stageType>BOOST</stageType>
  <featureType>HAAR</featureType>
  <height>38</height>
  <width>38</width>
  <stageParams>
    <boostType>GAB</boostType>
    <minHitRate>9.9500000476837158e-01</minHitRate>
    <maxFalseAlarm>5.0000000000000000e-01</maxFalseAlarm>
    <weightTrimRate>9.4999998807907104e-01</weightTrimRate>
    <maxDepth>1</maxDepth>
    <maxWeakCount>100</maxWeakCount></stageParams>
  <featureParams>
    <maxCatCount>0</maxCatCount>
    <featSize>1</featSize>
    <mode>BASIC</mode></featureParams>
  <stageNum>8</stageNum>
  <stages>
    <!-- stage 0 -->
    <_>
      <maxWeakCount>13</maxWeakCount>
      <stageThreshold>-1.2580029964447021e+00</stageThreshold>
      <weakClassifiers>
        <_>
          <internalNodes>
            0 -1 11 7.4895903468132019e-02</internalNodes>
          <leafValues>
            -5.8494031429290771e-01 4.5030426979064941e-01</leafValues></_>
        <_>
          <internalNodes>
            0 -1 7 -6.5655976533889771e-02</internalNodes>
          <leafValues>
            -8.2791262865066528e-01 1.3369400799274445e-01</leafValues></_>
        <_>
          <internalNodes>
            0 -1 87 -3.3950462238863111e-04</internalNodes>
          <leafValues>
            -4.7997206449508667e-01 1.9921961426734924e-01</leafValues></_>
        <_>
          <internalNodes>
            0 -1 5 1.1344993114471436e-01</internalNodes>
          <leafValues>
            1.2759245932102203e-01 -8.1429320573806763e-01</leafValues></_>
        <_>
          <internalNodes>
            0 -1 62 1.1473321355879307e-03</internalNodes>
          <leafValues>
            -1.7455850541591644e-01 5.9719139337539673e-01</leafValues></_>
        <_>
          <internalNodes>
            0 -1 36 1.1323506478220224e-03</internalNodes>
          <leafValues>
            -1.4895102381706238e-01 5.3420984745025635e-01</leafValues></_>
        <_>
          <internalNodes>
            0 -1 23 3.7454761564731598e-02</internalNodes>
          <leafValues>
            -1.1777196824550629e-01 6.1692821979522705e-01</leafValues></_>
        <_>
          <internalNodes>
            0 -1 17 1.3107204809784889e-02</internalNodes>
          <leafValues>
            -1.7187824845314026e-01 4.4990652799606323e-01</leafValues></_>
        <_>
          <internalNodes>
            0 -1 24 -2.1965306252241135e-02</internalNodes>
          <leafValues>
            -8.0963957309722900e-01 9.2878475785255432e-02</leafValues></_>
        <_>
          <internalNodes>
            0 -1 35 -1.1812137439846992e-02</internalNodes>
          <leafValues>
            5.5266469717025757e-01 -1.3403226435184479e-01</leafValues></_>
        <_>
          <internalNodes>
            0 -1 40 1.7122430726885796e-02</internalNodes>
          <leafValues>
            -1.0632547736167908e-01 5.6843900680541992e-01</leafValues></_>
        <_>
          <internalNodes>
            0 -1 46 8.9433476328849792e-02</internalNodes>
          <leafValues>
            9.6429578959941864e-02 -7.2934406995773315e-01</leafValues></_>
        <_>
          <internalNodes>
            0 -1 13 9.1327569680288434e-04</internalNodes>
          <leafValues>
            2.0983232557773590e-01 -3.1306418776512146e-01</leafValues></_></weakClassifiers></_>
    <!-- stage 1 -->
    <_>
      <maxWeakCount>20</maxWeakCount>
      <stageThreshold>-1.1659749746322632e+00</stageThreshold>
      <weakClassifiers>
        <_>
          <internalNodes>
            0 -1 60 -1.1375488713383675e-02</internalNodes>
          <leafValues>
            9.0243899822235107e-01 -2.5279641151428223e-01</leafValues></_>
        <_>
          <internalNodes>
            0 -1 14 3.2044939696788788e-02</internalNodes>
          <leafValues>
            -2.0787678658962250e-01 4.9371892213821411e-01</leafValues></_>
        <_>
          <internalNodes>
            0 -1 1 7.8546837903559208e-04</internalNodes>
          <leafValues>
            1.2869282066822052e-01 -4.8800352215766907e-01</leafValues></_>
        <_>
          <internalNodes>
            0 -1 67 -1.7137416580226272e-04</internalNodes>
          <leafValues>
            4.6551609039306641e-01 -1.2607207894325256e-01</leafValues></_>
        <_>
          <internalNodes>
            0 -1 9 3.6033522337675095e-02</internalNodes>
          <leafValues>
            -1.4461594820022583e-01 4.6648991107940674e-01</leafValues></_>
        <_>
          <internalNodes>
            0 -1 74 1.5328035224229097e-03</internalNodes>
          <leafValues>
            -1.6925467550754547e-01 3.5283881425857544e-01</leafValues></_>
        <_>
          <internalNodes>
            0 -1 30 8.4701919695362449e-04</internalNodes>
          <leafValues>
            -5.0420683622360229e-01 1.8067498505115509e-01</leafValues></_>
        <_>
          <internalNodes>
            0 -1 55 2.1664761006832123e-03</internalNodes>
          <leafValues>
            -1.9279746711254120e-01 4.4158676266670227e-01</leafValues></_>
        <_>
          <internalNodes>
            0 -1 58 1.7527665477246046e-05</internalNodes>
          <leafValues>
            2.8625100851058960e-01 -2.5026869773864746e-01</leafValues></_>
        <_>
          <internalNodes>
            0 -1 16 5.1105297170579433e-03</internalNodes>
          <leafValues>
            -1.5623228251934052e-01 4.4686260819435120e-01</leafValues></_>
        <_>
          <internalNodes>
            0 -1 34 3.4574229270219803e-02</internalNodes>
          <leafValues>
            -1.3713362812995911e-01 4.7456923127174377e-01</leafValues></_>
        <_>
          <internalNodes>
            0 -1 31 -3.7790264934301376e-02</internalNodes>
          <leafValues>
            6.5629094839096069e-01 -1.0804330557584763e-01</leafValues></_>
        <_>
          <internalNodes>
            0 -1 47 9.6313059329986572e-03</internalNodes>
          <leafValues>
            -1.4588013291358948e-01 4.5831793546676636e-01</leafValues></_>
        <_>
          <internalNodes>
            0 -1 89 -4.6776985982432961e-04</internalNodes>
          <leafValues>
            -3.1198182702064514e-01 2.0957608520984650e-01</leafValues></_>
        <_>
          <internalNodes>
            0 -1 8 -1.8374579027295113e-02</internalNodes>
          <leafValues>
            -6.8794959783554077e-01 7.9446189105510712e-02</leafValues></_>
        <_>
          <internalNodes>
            0 -1 10 -4.8454098759975750e-06</internalNodes>
          <leafValues>
            -2.2046579420566559e-01 2.5878545641899109e-01</leafValues></_>
        <_>
          <internalNodes>
            0 -1 57 2.2536017931997776e-03</internalNodes>
          <leafValues>
            -1.6959923505783081e-01 3.5683387517929077e-01</leafValues></_>
        <_>
          <internalNodes>
            0 -1 45 -4.1730754077434540e-02</internalNodes>
          <leafValues>
            7.5555509328842163e-01 -7.8350044786930084e-02</leafValues></_>
        <_>
          <internalNodes>
            0 -1 71 1.3978027272969484e-03</internalNodes>
          <leafValues>
            -1.4311666786670685e-01 3.6063486337661743e-01</leafValues></_>
        <_>
          <internalNodes>
            0 -1 59 3.0684395460411906e-04</internalNodes>
          <leafValues>
            -3.9929091930389404e-01 1.5385790169239044e-01</leafValues></_></weakClassifiers></_>
    <!-- stage 2 -->
    <_>
      <maxWeakCount>24</maxWeakCount>
      <stageThreshold>-1.1764686107635498e+00</stageThreshold>
      <weakClassifiers>
        <_>
          <internalNodes>
            0 -1 60 -1.1375488713383675e-02</internalNodes>
          <leafValues>
            8.3892619609832764e-01 -2.4929656088352203e-01</leafValues></_>
        <_>
          <internalNodes>
            0 -1 66 -1.4303999021649361e-02</internalNodes>
          <leafValues>
            7.9941505193710327e-01 -8.3995096385478973e-02</leafValues></_>
        <_>
          <internalNodes>
            0 -1 27 1.0397228412330151e-02</internalNodes>
          <leafValues>
            -1.9888967275619507e-01 3.9610484242439270e-01</leafValues></_>
        <_>
          <internalNodes>
            0 -1 70 4.8898358363658190e-04</internalNodes>
          <leafValues>
            -1.6800644993782043e-01 3.6159509420394897e-01</leafValues></_>
        <_>
          <internalNodes>
            0 -1 77 1.5259720385074615e-03</internalNodes>
          <leafValues>
            -1.2376727908849716e-01 5.3953623771667480e-01</leafValues></_>
        <_>
          <internalNodes>
            0 -1 84 -1.2277700006961823e-02</internalNodes>
          <leafValues>
            9.5592522621154785e-01 -5.9799510985612869e-02</leafValues></_>
        <_>
          <internalNodes>
            0 -1 2 4.8403558321297169e-04</internalNodes>
          <leafValues>
            1.8492051959037781e-01 -3.4240999817848206e-01</leafValues></_>
        <_>
          <internalNodes>
            0 -1 61 7.1357761044055223e-04</internalNodes>
          <leafValues>
            -1.1785230785608292e-01 4.7608524560928345e-01</leafValues></_>
        <_>
          <internalNodes>
            0 -1 53 1.2986797373741865e-03</internalNodes>
          <leafValues>
            -5.3851857781410217e-02 8.4049266576766968e-01</leafValues></_>
        <_>
          <internalNodes>
            0 -1 12 -2.1201476920396090e-04</internalNodes>
          <leafValues>
            -2.8814297914505005e-01 2.5608360767364502e-01</leafValues></_>
        <_>
          <internalNodes>
            0 -1 51 7.7344346209429204e-05</internalNodes>
          <leafValues>
            -2.6773193478584290e-01 2.3052433133125305e-01</leafValues></_>
        <_>
          <internalNodes>
            0 -1 42 4.1255734860897064e-02</internalNodes>
          <leafValues>
            1.0371942818164825e-01 -7.1003991365432739e-01</leafValues></_>
        <_>
          <internalNodes>
            0 -1 44 8.9671593741513789e-05</internalNodes>
          <leafValues>
            2.7008295059204102e-01 -2.4553985893726349e-01</leafValues></_>
        <_>
          <internalNodes>
            0 -1 83 -6.0413233935832977e-02</internalNodes>
          <leafValues>
            -6.4281940460205078e-01 1.2493891268968582e-01</leafValues></_>
        <_>
          <internalNodes>
            0 -1 85 -4.8521941062062979e-04</internalNodes>
          <leafValues>
            6.5261816978454590e-01 -1.2994371354579926e-01</leafValues></_>
        <_>
          <internalNodes>
            0 -1 33 -1.0477891191840172e-03</internalNodes>
          <leafValues>
            4.8315715789794922e-01 -1.1328632384538651e-01</leafValues></_>
        <_>
          <internalNodes>
            0 -1 50 1.7662012251093984e-03</internalNodes>
          <leafValues>
            -5.8172997087240219e-02 8.2899940013885498e-01</leafValues></_>
        <_>
          <internalNodes>
            0 -1 19 7.8177064657211304e-02</internalNodes>
          <leafValues>
            -3.5655602812767029e-01 2.0252808928489685e-01</leafValues></_>
        <_>
          <internalNodes>
            0 -1 72 3.4874986857175827e-02</internalNodes>
          <leafValues>
            -1.0934916138648987e-01 7.3372459411621094e-01</leafValues></_>
        <_>
          <internalNodes>
            0 -1 29 1.1348396074026823e-03</internalNodes>
          <leafValues>
            3.1385540962219238e-01 -2.0468376576900482e-01</leafValues></_>
        <_>
          <internalNodes>
            0 -1 81 -2.6998252142220736e-03</internalNodes>
          <leafValues>
            -3.2217189669609070e-01 2.1449060738086700e-01</leafValues></_>
        <_>
          <internalNodes>
            0 -1 88 1.5701367374276742e-05</internalNodes>
          <leafValues>
            -2.6980707049369812e-01 2.6560866832733154e-01</leafValues></_>
        <_>
          <internalNodes>
            0 -1 4 -1.3829094357788563e-02</internalNodes>
          <leafValues>
            -6.6474503278732300e-01 1.1702413856983185e-01</leafValues></_>
        <_>
          <internalNodes>
            0 -1 20 -1.6684943693690002e-04</internalNodes>
          <leafValues>
            -5.7013404369354248e-01 9.3707866966724396e-02</leafValues></_></weakClassifiers></_>
    <!-- stage 3 -->
    <_>
      <maxWeakCount>19</maxWeakCount>
      <stageThreshold>-1.2068611383438110e+00</stageThreshold>
      <weakClassifiers>
        <_>
          <internalNodes>
            0 -1 64 -1.5233092010021210e-02</internalNodes>
          <leafValues>
            9.2509365081787109e-01 -2.4336282908916473e-01</leafValues></_>
        <_>
          <internalNodes>
            0 -1 94 -2.7931444492423907e-05</internalNodes>
          <leafValues>
            -3.0144330859184265e-01 3.1712925434112549e-01</leafValues></_>
        <_>
          <internalNodes>
            0 -1 86 -3.4034477721434087e-05</internalNodes>
          <leafValues>
            -3.0190768837928772e-01 3.6856961250305176e-01</leafValues></_>
        <_>
          <internalNodes>
            0 -1 49 -3.8284719921648502e-03</internalNodes>
          <leafValues>
            8.1119543313980103e-01 -1.0542630404233932e-01</leafValues></_>
        <_>
          <internalNodes>
            0 -1 69 1.0020036250352859e-02</internalNodes>
          <leafValues>
            -1.3969825208187103e-01 5.4332882165908813e-01</leafValues></_>
        <_>
          <internalNodes>
            0 -1 38 9.6046924591064453e-03</internalNodes>
          <leafValues>
            -2.8433132171630859e-01 3.1769698858261108e-01</leafValues></_>
        <_>
          <internalNodes>
            0 -1 22 2.5097382604144514e-04</internalNodes>
          <leafValues>
            -1.5919089317321777e-01 5.1125138998031616e-01</leafValues></_>
        <_>
          <internalNodes>
            0 -1 48 9.5922937616705894e-03</internalNodes>
          <leafValues>
            -1.4322724938392639e-01 6.1822974681854248e-01</leafValues></_>
        <_>
          <internalNodes>
            0 -1 80 7.7942376956343651e-03</internalNodes>
          <leafValues>
            -1.3650286197662354e-01 7.3378074169158936e-01</leafValues></_>
        <_>
          <internalNodes>
            0 -1 51 2.6676166453398764e-04</internalNodes>
          <leafValues>
            -1.9215002655982971e-01 4.5271673798561096e-01</leafValues></_>
        <_>
          <internalNodes>
            0 -1 63 2.4385624565184116e-03</internalNodes>
          <leafValues>
            -1.7752200365066528e-01 4.5722818374633789e-01</leafValues></_>
        <_>
          <internalNodes>
            0 -1 91 7.1861119940876961e-03</internalNodes>
          <leafValues>
            -1.0752566903829575e-01 7.5630152225494385e-01</leafValues></_>
        <_>
          <internalNodes>
            0 -1 41 5.3364927880465984e-03</internalNodes>
          <leafValues>
            -1.3552634418010712e-01 6.2164413928985596e-01</leafValues></_>
        <_>
          <internalNodes>
            0 -1 68 1.2895889813080430e-03</internalNodes>
          <leafValues>
            2.7465176582336426e-01 -3.7437790632247925e-01</leafValues></_>
        <_>
          <internalNodes>
            0 -1 18 4.8925571143627167e-02</internalNodes>
          <leafValues>
            1.9496664404869080e-01 -4.7189471125602722e-01</leafValues></_>
        <_>
          <internalNodes>
            0 -1 6 -8.2493992522358894e-04</internalNodes>
          <leafValues>
            6.4147579669952393e-01 -1.4141328632831573e-01</leafValues></_>
        <_>
          <internalNodes>
            0 -1 97 1.2835998859372921e-05</internalNodes>
          <leafValues>
            2.9696381092071533e-01 -3.2167714834213257e-01</leafValues></_>
        <_>
          <internalNodes>
            0 -1 32 1.7097567615564913e-04</internalNodes>
          <leafValues>
            -1.0814917832612991e-01 7.7834713459014893e-01</leafValues></_>
        <_>
          <internalNodes>
            0 -1 54 2.3070441093295813e-03</internalNodes>
          <leafValues>
            -3.0092641711235046e-01 2.8571406006813049e-01</leafValues></_></weakClassifiers></_>
    <!-- stage 4 -->
    <_>
      <maxWeakCount>13</maxWeakCount>
      <stageThreshold>-1.3527873754501343e+00</stageThreshold>
      <weakClassifiers>
        <_>
          <internalNodes>
            0 -1 65 -2.3898735642433167e-02</internalNodes>
          <leafValues>
            1. -2.8135591745376587e-01</leafValues></_>
        <_>
          <internalNodes>
            0 -1 3 4.7334743430837989e-04</internalNodes>
          <leafValues>
            4.3597114086151123e-01 -3.0203604698181152e-01</leafValues></_>
        <_>
          <internalNodes>
            0 -1 98 4.1767500806599855e-04</internalNodes>
          <leafValues>
            3.6657774448394775e-01 -4.0859228372573853e-01</leafValues></_>
        <_>
          <internalNodes>
            0 -1 78 -6.0346587815729436e-06</internalNodes>
          <leafValues>
            5.5110836029052734e-01 -2.6954972743988037e-01</leafValues></_>
        <_>
          <internalNodes>
            0 -1 39 2.7765228878706694e-04</internalNodes>
          <leafValues>
            -2.1018618345260620e-01 6.2266731262207031e-01</leafValues></_>
        <_>
          <internalNodes>
            0 -1 25 6.8396665155887604e-03</internalNodes>
          <leafValues>
            -1.8102037906646729e-01 7.1033471822738647e-01</leafValues></_>
        <_>
          <internalNodes>
            0 -1 92 -1.4247121725929901e-05</internalNodes>
          <leafValues>
            -2.6984712481498718e-01 5.2377551794052124e-01</leafValues></_>
        <_>
          <internalNodes>
            0 -1 56 -1.7004727851599455e-05</internalNodes>
          <leafValues>
            -3.6230695247650146e-01 4.2383944988250732e-01</leafValues></_>
        <_>
          <internalNodes>
            0 -1 75 -1.6493584553245455e-04</internalNodes>
          <leafValues>
            -3.9660444855690002e-01 3.7011030316352844e-01</leafValues></_>
        <_>
          <internalNodes>
            0 -1 37 -1.7193600797327235e-05</internalNodes>
          <leafValues>
            -2.5477617979049683e-01 6.0211759805679321e-01</leafValues></_>
        <_>
          <internalNodes>
            0 -1 93 -1.6275713278446347e-04</internalNodes>
          <leafValues>
            7.1192681789398193e-01 -2.4624173343181610e-01</leafValues></_>
        <_>
          <internalNodes>
            0 -1 26 3.3314785105176270e-04</internalNodes>
          <leafValues>
            4.4736188650131226e-01 -3.4151130914688110e-01</leafValues></_>
        <_>
          <internalNodes>
            0 -1 43 3.2046725391410291e-04</internalNodes>
          <leafValues>
            -1.9037482142448425e-01 7.7134841680526733e-01</leafValues></_></weakClassifiers></_>
    <!-- stage 5 -->
    <_>
      <maxWeakCount>8</maxWeakCount>
      <stageThreshold>-1.1081700325012207e+00</stageThreshold>
      <weakClassifiers>
        <_>
          <internalNodes>
            0 -1 21 1.0046804527519271e-04</internalNodes>
          <leafValues>
            8.0971658229827881e-01 -3.7507906556129456e-01</leafValues></_>
        <_>
          <internalNodes>
            0 -1 15 1.7260012100450695e-04</internalNodes>
          <leafValues>
            5.9128922224044800e-01 -4.1382744908332825e-01</leafValues></_>
        <_>
          <internalNodes>
            0 -1 28 1.6101586879813112e-05</internalNodes>
          <leafValues>
            8.0252927541732788e-01 -3.7953919172286987e-01</leafValues></_>
        <_>
          <internalNodes>
            0 -1 95 1.3944332749815658e-05</internalNodes>
          <leafValues>
            6.1485439538955688e-01 -4.3809637427330017e-01</leafValues></_>
        <_>
          <internalNodes>
            0 -1 76 1.4562738215317950e-05</internalNodes>
          <leafValues>
            8.2537251710891724e-01 -3.3570170402526855e-01</leafValues></_>
        <_>
          <internalNodes>
            0 -1 99 -1.4225950508262031e-05</internalNodes>
          <leafValues>
            -3.9521890878677368e-01 6.4238798618316650e-01</leafValues></_>
        <_>
          <internalNodes>
            0 -1 73 4.0418736170977354e-04</internalNodes>
          <leafValues>
            6.6750234365463257e-01 -4.0214264392852783e-01</leafValues></_>
        <_>
          <internalNodes>
            0 -1 82 5.1020044338656589e-05</internalNodes>
          <leafValues>
            6.2631869316101074e-01 -4.7316721081733704e-01</leafValues></_></weakClassifiers></_>
    <!-- stage 6 -->
    <_>
      <maxWeakCount>4</maxWeakCount>
      <stageThreshold>-9.8627591133117676e-01</stageThreshold>
      <weakClassifiers>
        <_>
          <internalNodes>
            0 -1 90 -1.0800049640238285e-03</internalNodes>
          <leafValues>
            -7.2209566831588745e-01 1.</leafValues></_>
        <_>
          <internalNodes>
            0 -1 52 -6.4533436670899391e-05</internalNodes>
          <leafValues>
            -5.7400274276733398e-01 1.</leafValues></_>
        <_>
          <internalNodes>
            0 -1 96 7.9522455052938312e-05</internalNodes>
          <leafValues>
            1. -4.8434627056121826e-01</leafValues></_>
        <_>
          <internalNodes>
            0 -1 79 -2.9096594080328941e-03</internalNodes>
          <leafValues>
            -6.0575139522552490e-01 7.9416877031326294e-01</leafValues></_></weakClassifiers></_>
    <!-- stage 7 -->
    <_>
      <maxWeakCount>1</maxWeakCount>
      <stageThreshold>1.</stageThreshold>
      <weakClassifiers>
        <_>
          <internalNodes>
            0 -1 0 -2.4783471226692200e-01</internalNodes>
          <leafValues>
            -1. 1.</leafValues></_></weakClassifiers></_></stages>
  <features>
    <_>
      <rects>
        <_>
          0 0 30 24 -1.</_>
        <_>
          0 0 15 12 2.</_>
        <_>
          15 12 15 12 2.</_></rects>
      <tilted>0</tilted></_>
    <_>
      <rects>
        <_>
          0 1 3 6 -1.</_>
        <_>
          0 4 3 3 2.</_></rects>
      <tilted>0</tilted></_>
    <_>
      <rects>
        <_>
          0 1 8 2 -1.</_>
        <_>
          4 1 4 2 2.</_></rects>
      <tilted>0</tilted></_>
    <_>
      <rects>
        <_>
          0 11 6 12 -1.</_>
        <_>
          0 11 3 6 2.</_>
        <_>
          3 17 3 6 2.</_></rects>
      <tilted>0</tilted></_>
    <_>
      <rects>
        <_>
          0 12 36 4 -1.</_>
        <_>
          12 12 12 4 3.</_></rects>
      <tilted>0</tilted></_>
    <_>
      <rects>
        <_>
          0 16 34 22 -1.</_>
        <_>
          0 27 34 11 2.</_></rects>
      <tilted>0</tilted></_>
    <_>
      <rects>
        <_>
          0 22 22 3 -1.</_>
        <_>
          0 23 22 1 3.</_></rects>
      <tilted>0</tilted></_>
    <_>
      <rects>
        <_>
          1 6 36 27 -1.</_>
        <_>
          13 6 12 27 3.</_></rects>
      <tilted>0</tilted></_>
    <_>
      <rects>
        <_>
          1 9 36 21 -1.</_>
        <_>
          13 9 12 21 3.</_></rects>
      <tilted>0</tilted></_>
    <_>
      <rects>
        <_>
          1 18 31 12 -1.</_>
        <_>
          1 22 31 4 3.</_></rects>
      <tilted>0</tilted></_>
    <_>
      <rects>
        <_>
          2 5 6 4 -1.</_>
        <_>
          4 5 2 4 3.</_></rects>
      <tilted>0</tilted></_>
    <_>
      <rects>
        <_>
          2 14 36 9 -1.</_>
        <_>
          14 14 12 9 3.</_></rects>
      <tilted>0</tilted></_>
    <_>
      <rects>
        <_>
          2 23 7 2 -1.</_>
        <_>
          2 24 7 1 2.</_></rects>
      <tilted>0</tilted></_>
    <_>
      <rects>
        <_>
          2 37 36 1 -1.</_>
        <_>
          14 37 12 1 3.</_></rects>
      <tilted>0</tilted></_>
    <_>
      <rects>
        <_>
          3 0 18 20 -1.</_>
        <_>
          3 0 9 10 2.</_>
        <_>
          12 10 9 10 2.</_></rects>
      <tilted>0</tilted></_>
    <_>
      <rects>
        <_>
          3 1 18 3 -1.</_>
        <_>
          3 2 18 1 3.</_></rects>
      <tilted>0</tilted></_>
    <_>
      <rects>
        <_>
          3 16 29 6 -1.</_>
        <_>
          3 18 29 2 3.</_></rects>
      <tilted>0</tilted></_>
    <_>
      <rects>
        <_>
          4 19 22 9 -1.</_>
        <_>
          4 22 22 3 3.</_></rects>
      <tilted>0</tilted></_>
    <_>
      <rects>
        <_>
          5 1 32 30 -1.</_>
        <_>
          5 1 16 15 2.</_>
        <_>
          21 16 16 15 2.</_></rects>
      <tilted>0</tilted></_>
    <_>
      <rects>
        <_>
          5 8 33 18 -1.</_>
        <_>
          16 8 11 18 3.</_></rects>
      <tilted>0</tilted></_>
    <_>
      <rects>
        <_>
          5 36 2 2 -1.</_>
        <_>
          5 37 2 1 2.</_></rects>
      <tilted>0</tilted></_>
    <_>
      <rects>
        <_>
          7 6 2 9 -1.</_>
        <_>
          8 6 1 9 2.</_></rects>
      <tilted>0</tilted></_>
    <_>
      <rects>
        <_>
          7 8 10 3 -1.</_>
        <_>
          7 9 10 1 3.</_></rects>
      <tilted>0</tilted></_>
    <_>
      <rects>
        <_>
          7 11 25 12 -1.</_>
        <_>
          7 15 25 4 3.</_></rects>
      <tilted>0</tilted></_>
    <_>
      <rects>
        <_>
          8 0 11 14 -1.</_>
        <_>
          8 7 11 7 2.</_></rects>
      <tilted>0</tilted></_>
    <_>
      <rects>
        <_>
          8 2 6 24 -1.</_>
        <_>
          8 2 3 12 2.</_>
        <_>
          11 14 3 12 2.</_></rects>
      <tilted>0</tilted></_>
    <_>
      <rects>
        <_>
          8 36 27 1 -1.</_>
        <_>
          17 36 9 1 3.</_></rects>
      <tilted>0</tilted></_>
    <_>
      <rects>
        <_>
          9 10 9 17 -1.</_>
        <_>
          12 10 3 17 3.</_></rects>
      <tilted>0</tilted></_>
    <_>
      <rects>
        <_>
          9 21 1 3 -1.</_>
        <_>
          9 22 1 1 3.</_></rects>
      <tilted>0</tilted></_>
    <_>
      <rects>
        <_>
          10 2 4 15 -1.</_>
        <_>
          12 2 2 15 2.</_></rects>
      <tilted>0</tilted></_>
    <_>
      <rects>
        <_>
          10 2 9 36 -1.</_>
        <_>
          10 14 9 12 3.</_></rects>
      <tilted>0</tilted></_>
    <_>
      <rects>
        <_>
          10 5 15 28 -1.</_>
        <_>
          15 5 5 28 3.</_></rects>
      <tilted>0</tilted></_>
    <_>
      <rects>
        <_>
          10 8 3 1 -1.</_>
        <_>
          11 8 1 1 3.</_></rects>
      <tilted>0</tilted></_>
    <_>
      <rects>
        <_>
          10 17 5 6 -1.</_>
        <_>
          10 19 5 2 3.</_></rects>
      <tilted>0</tilted></_>
    <_>
      <rects>
        <_>
          11 1 12 37 -1.</_>
        <_>
          15 1 4 37 3.</_></rects>
      <tilted>0</tilted></_>
    <_>
      <rects>
        <_>
          11 19 15 6 -1.</_>
        <_>
          16 19 5 6 3.</_></rects>
      <tilted>0</tilted></_>
    <_>
      <rects>
        <_>
          11 19 16 3 -1.</_>
        <_>
          11 20 16 1 3.</_></rects>
      <tilted>0</tilted></_>
    <_>
      <rects>
        <_>
          11 32 4 6 -1.</_>
        <_>
          11 32 2 3 2.</_>
        <_>
          13 35 2 3 2.</_></rects>
      <tilted>0</tilted></_>
    <_>
      <rects>
        <_>
          12 0 12 25 -1.</_>
        <_>
          16 0 4 25 3.</_></rects>
      <tilted>0</tilted></_>
    <_>
      <rects>
        <_>
          12 8 6 3 -1.</_>
        <_>
          14 8 2 3 3.</_></rects>
      <tilted>0</tilted></_>
    <_>
      <rects>
        <_>
          13 4 9 31 -1.</_>
        <_>
          16 4 3 31 3.</_></rects>
      <tilted>0</tilted></_>
    <_>
      <rects>
        <_>
          13 11 9 6 -1.</_>
        <_>
          16 11 3 6 3.</_></rects>
      <tilted>0</tilted></_>
    <_>
      <rects>
        <_>
          13 15 24 9 -1.</_>
        <_>
          25 15 12 9 2.</_></rects>
      <tilted>0</tilted></_>
    <_>
      <rects>
        <_>
          13 35 23 3 -1.</_>
        <_>
          13 36 23 1 3.</_></rects>
      <tilted>0</tilted></_>
    <_>
      <rects>
        <_>
          14 4 1 4 -1.</_>
        <_>
          14 6 1 2 2.</_></rects>
      <tilted>0</tilted></_>
    <_>
      <rects>
        <_>
          14 4 12 26 -1.</_>
        <_>
          18 4 4 26 3.</_></rects>
      <tilted>0</tilted></_>
    <_>
      <rects>
        <_>
          14 6 24 26 -1.</_>
        <_>
          26 6 12 26 2.</_></rects>
      <tilted>0</tilted></_>
    <_>
      <rects>
        <_>
          14 6 17 9 -1.</_>
        <_>
          14 9 17 3 3.</_></rects>
      <tilted>0</tilted></_>
    <_>
      <rects>
        <_>
          14 13 23 9 -1.</_>
        <_>
          14 16 23 3 3.</_></rects>
      <tilted>0</tilted></_>
    <_>
      <rects>
        <_>
          14 15 6 8 -1.</_>
        <_>
          16 15 2 8 3.</_></rects>
      <tilted>0</tilted></_>
    <_>
      <rects>
        <_>
          14 20 12 2 -1.</_>
        <_>
          14 20 6 1 2.</_>
        <_>
          20 21 6 1 2.</_></rects>
      <tilted>0</tilted></_>
    <_>
      <rects>
        <_>
          14 25 6 2 -1.</_>
        <_>
          16 25 2 2 3.</_></rects>
      <tilted>0</tilted></_>
    <_>
      <rects>
        <_>
          15 2 5 2 -1.</_>
        <_>
          15 3 5 1 2.</_></rects>
      <tilted>0</tilted></_>
    <_>
      <rects>
        <_>
          15 14 1 6 -1.</_>
        <_>
          15 16 1 2 3.</_></rects>
      <tilted>0</tilted></_>
    <_>
      <rects>
        <_>
          15 14 15 10 -1.</_>
        <_>
          20 14 5 10 3.</_></rects>
      <tilted>0</tilted></_>
    <_>
      <rects>
        <_>
          16 18 9 4 -1.</_>
        <_>
          19 18 3 4 3.</_></rects>
      <tilted>0</tilted></_>
    <_>
      <rects>
        <_>
          16 31 3 2 -1.</_>
        <_>
          17 31 1 2 3.</_></rects>
      <tilted>0</tilted></_>
    <_>
      <rects>
        <_>
          17 0 6 17 -1.</_>
        <_>
          19 0 2 17 3.</_></rects>
      <tilted>0</tilted></_>
    <_>
      <rects>
        <_>
          17 1 1 2 -1.</_>
        <_>
          17 2 1 1 2.</_></rects>
      <tilted>0</tilted></_>
    <_>
      <rects>
        <_>
          17 8 6 30 -1.</_>
        <_>
          17 18 6 10 3.</_></rects>
      <tilted>0</tilted></_>
    <_>
      <rects>
        <_>
          17 19 18 1 -1.</_>
        <_>
          26 19 9 1 2.</_></rects>
      <tilted>0</tilted></_>
    <_>
      <rects>
        <_>
          18 5 3 11 -1.</_>
        <_>
          19 5 1 11 3.</_></rects>
      <tilted>0</tilted></_>
    <_>
      <rects>
        <_>
          18 5 3 19 -1.</_>
        <_>
          19 5 1 19 3.</_></rects>
      <tilted>0</tilted></_>
    <_>
      <rects>
        <_>
          18 13 6 10 -1.</_>
        <_>
          20 13 2 10 3.</_></rects>
      <tilted>0</tilted></_>
    <_>
      <rects>
        <_>
          18 16 1 22 -1.</_>
        <_>
          18 27 1 11 2.</_></rects>
      <tilted>0</tilted></_>
    <_>
      <rects>
        <_>
          18 16 2 20 -1.</_>
        <_>
          18 26 2 10 2.</_></rects>
      <tilted>0</tilted></_>
    <_>
      <rects>
        <_>
          19 15 1 22 -1.</_>
        <_>
          19 26 1 11 2.</_></rects>
      <tilted>0</tilted></_>
    <_>
      <rects>
        <_>
          19 22 2 4 -1.</_>
        <_>
          19 22 1 2 2.</_>
        <_>
          20 24 1 2 2.</_></rects>
      <tilted>0</tilted></_>
    <_>
      <rects>
        <_>
          20 0 16 2 -1.</_>
        <_>
          28 0 8 2 2.</_></rects>
      <tilted>0</tilted></_>
    <_>
      <rects>
        <_>
          20 1 9 24 -1.</_>
        <_>
          23 1 3 24 3.</_></rects>
      <tilted>0</tilted></_>
    <_>
      <rects>
        <_>
          20 9 1 9 -1.</_>
        <_>
          20 12 1 3 3.</_></rects>
      <tilted>0</tilted></_>
    <_>
      <rects>
        <_>
          20 12 3 9 -1.</_>
        <_>
          20 15 3 3 3.</_></rects>
      <tilted>0</tilted></_>
    <_>
      <rects>
        <_>
          21 0 12 22 -1.</_>
        <_>
          21 0 6 11 2.</_>
        <_>
          27 11 6 11 2.</_></rects>
      <tilted>0</tilted></_>
    <_>
      <rects>
        <_>
          21 6 2 18 -1.</_>
        <_>
          21 6 1 9 2.</_>
        <_>
          22 15 1 9 2.</_></rects>
      <tilted>0</tilted></_>
    <_>
      <rects>
        <_>
          21 20 9 3 -1.</_>
        <_>
          24 20 3 3 3.</_></rects>
      <tilted>0</tilted></_>
    <_>
      <rects>
        <_>
          21 30 5 3 -1.</_>
        <_>
          21 31 5 1 3.</_></rects>
      <tilted>0</tilted></_>
    <_>
      <rects>
        <_>
          22 2 2 6 -1.</_>
        <_>
          22 2 1 3 2.</_>
        <_>
          23 5 1 3 2.</_></rects>
      <tilted>0</tilted></_>
    <_>
      <rects>
        <_>
          22 9 3 22 -1.</_>
        <_>
          23 9 1 22 3.</_></rects>
      <tilted>0</tilted></_>
    <_>
      <rects>
        <_>
          22 18 1 6 -1.</_>
        <_>
          22 20 1 2 3.</_></rects>
      <tilted>0</tilted></_>
    <_>
      <rects>
        <_>
          22 27 4 8 -1.</_>
        <_>
          24 27 2 8 2.</_></rects>
      <tilted>0</tilted></_>
    <_>
      <rects>
        <_>
          23 16 1 21 -1.</_>
        <_>
          23 23 1 7 3.</_></rects>
      <tilted>0</tilted></_>
    <_>
      <rects>
        <_>
          23 32 15 3 -1.</_>
        <_>
          28 32 5 3 3.</_></rects>
      <tilted>0</tilted></_>
    <_>
      <rects>
        <_>
          23 33 3 2 -1.</_>
        <_>
          24 33 1 2 3.</_></rects>
      <tilted>0</tilted></_>
    <_>
      <rects>
        <_>
          27 0 11 33 -1.</_>
        <_>
          27 11 11 11 3.</_></rects>
      <tilted>0</tilted></_>
    <_>
      <rects>
        <_>
          27 18 4 9 -1.</_>
        <_>
          29 18 2 9 2.</_></rects>
      <tilted>0</tilted></_>
    <_>
      <rects>
        <_>
          28 16 4 3 -1.</_>
        <_>
          28 17 4 1 3.</_></rects>
      <tilted>0</tilted></_>
    <_>
      <rects>
        <_>
          28 31 6 2 -1.</_>
        <_>
          28 32 6 1 2.</_></rects>
      <tilted>0</tilted></_>
    <_>
      <rects>
        <_>
          30 2 6 2 -1.</_>
        <_>
          33 2 3 2 2.</_></rects>
      <tilted>0</tilted></_>
    <_>
      <rects>
        <_>
          30 10 6 2 -1.</_>
        <_>
          32 10 2 2 3.</_></rects>
      <tilted>0</tilted></_>
    <_>
      <rects>
        <_>
          30 35 8 2 -1.</_>
        <_>
          34 35 4 2 2.</_></rects>
      <tilted>0</tilted></_>
    <_>
      <rects>
        <_>
          32 1 4 8 -1.</_>
        <_>
          34 1 2 8 2.</_></rects>
      <tilted>0</tilted></_>
    <_>
      <rects>
        <_>
          32 15 2 18 -1.</_>
        <_>
          32 21 2 6 3.</_></rects>
      <tilted>0</tilted></_>
    <_>
      <rects>
        <_>
          33 2 4 4 -1.</_>
        <_>
          33 2 2 2 2.</_>
        <_>
          35 4 2 2 2.</_></rects>
      <tilted>0</tilted></_>
    <_>
      <rects>
        <_>
          33 18 4 6 -1.</_>
        <_>
          33 18 2 3 2.</_>
        <_>
          35 21 2 3 2.</_></rects>
      <tilted>0</tilted></_>
    <_>
      <rects>
        <_>
          35 18 3 1 -1.</_>
        <_>
          36 18 1 1 3.</_></rects>
      <tilted>0</tilted></_>
    <_>
      <rects>
        <_>
          36 2 2 21 -1.</_>
        <_>
          37 2 1 21 2.</_></rects>
      <tilted>0</tilted></_>
    <_>
      <rects>
        <_>
          36 4 2 8 -1.</_>
        <_>
          37 4 1 8 2.</_></rects>
      <tilted>0</tilted></_>
    <_>
      <rects>
        <_>
          36 5 2 9 -1.</_>
        <_>
          36 8 2 3 3.</_></rects>
      <tilted>0</tilted></_>
    <_>
      <rects>
        <_>
          37 5 1 24 -1.</_>
        <_>
          37 13 1 8 3.</_></rects>
      <tilted>0</tilted></_>
    <_>
      <rects>
        <_>
          37 22 1 2 -1.</_>
        <_>
          37 23 1 1 2.</_></rects>
      <tilted>0</tilted></_></features></cascade>
</opencv_storage>
