<?xml version="1.0"?>
<opencv_storage>
<cascade>
  <stageType>BOOST</stageType>
  <featureType>HAAR</featureType>
  <height>38</height>
  <width>38</width>
  <stageParams>
    <boostType>GAB</boostType>
    <minHitRate>9.9500000476837158e-01</minHitRate>
    <maxFalseAlarm>5.0000000000000000e-01</maxFalseAlarm>
    <weightTrimRate>9.4999998807907104e-01</weightTrimRate>
    <maxDepth>1</maxDepth>
    <maxWeakCount>100</maxWeakCount></stageParams>
  <featureParams>
    <maxCatCount>0</maxCatCount>
    <featSize>1</featSize>
    <mode>BASIC</mode></featureParams>
  <stageNum>6</stageNum>
  <stages>
    <!-- stage 0 -->
    <_>
      <maxWeakCount>4</maxWeakCount>
      <stageThreshold>-1.3599354028701782e+00</stageThreshold>
      <weakClassifiers>
        <_>
          <internalNodes>
            0 -1 0 7.5346663594245911e-02</internalNodes>
          <leafValues>
            -6.8320000171661377e-01 7.5449103116989136e-01</leafValues></_>
        <_>
          <internalNodes>
            0 -1 23 2.1811280748806894e-04</internalNodes>
          <leafValues>
            6.5447551012039185e-01 -5.6814897060394287e-01</leafValues></_>
        <_>
          <internalNodes>
            0 -1 3 -1.0673292726278305e-01</internalNodes>
          <leafValues>
            8.5324889421463013e-01 -4.1731628775596619e-01</leafValues></_>
        <_>
          <internalNodes>
            0 -1 6 1.0710656642913818e-02</internalNodes>
          <leafValues>
            3.8511478900909424e-01 -9.1389465332031250e-01</leafValues></_></weakClassifiers></_>
    <!-- stage 1 -->
    <_>
      <maxWeakCount>6</maxWeakCount>
      <stageThreshold>-1.1377769708633423e+00</stageThreshold>
      <weakClassifiers>
        <_>
          <internalNodes>
            0 -1 0 7.5346663594245911e-02</internalNodes>
          <leafValues>
            -6.6095888614654541e-01 5.6266665458679199e-01</leafValues></_>
        <_>
          <internalNodes>
            0 -1 20 1.3907505490351468e-04</internalNodes>
          <leafValues>
            5.4807704687118530e-01 -6.2191045284271240e-01</leafValues></_>
        <_>
          <internalNodes>
            0 -1 10 -2.4210643768310547e-01</internalNodes>
          <leafValues>
            7.2329926490783691e-01 -4.0134263038635254e-01</leafValues></_>
        <_>
          <internalNodes>
            0 -1 1 -2.6771407574415207e-03</internalNodes>
          <leafValues>
            7.2468066215515137e-01 -4.3729975819587708e-01</leafValues></_>
        <_>
          <internalNodes>
            0 -1 12 9.0532805188558996e-05</internalNodes>
          <leafValues>
            5.1316225528717041e-01 -4.8715129494667053e-01</leafValues></_>
        <_>
          <internalNodes>
            0 -1 14 -6.7293003667145967e-04</internalNodes>
          <leafValues>
            -8.1574916839599609e-01 3.4624412655830383e-01</leafValues></_></weakClassifiers></_>
    <!-- stage 2 -->
    <_>
      <maxWeakCount>5</maxWeakCount>
      <stageThreshold>-9.7707569599151611e-01</stageThreshold>
      <weakClassifiers>
        <_>
          <internalNodes>
            0 -1 9 4.0249651647172868e-05</internalNodes>
          <leafValues>
            5.2659577131271362e-01 -6.3979417085647583e-01</leafValues></_>
        <_>
          <internalNodes>
            0 -1 15 8.2705179229378700e-03</internalNodes>
          <leafValues>
            -6.6827756166458130e-01 5.8879315853118896e-01</leafValues></_>
        <_>
          <internalNodes>
            0 -1 24 -9.7099975391756743e-05</internalNodes>
          <leafValues>
            -6.7194521427154541e-01 4.4652986526489258e-01</leafValues></_>
        <_>
          <internalNodes>
            0 -1 16 -4.4914513826370239e-02</internalNodes>
          <leafValues>
            7.2132736444473267e-01 -4.5085349678993225e-01</leafValues></_>
        <_>
          <internalNodes>
            0 -1 22 -4.8256589798256755e-04</internalNodes>
          <leafValues>
            -8.3107030391693115e-01 4.2008483409881592e-01</leafValues></_></weakClassifiers></_>
    <!-- stage 3 -->
    <_>
      <maxWeakCount>5</maxWeakCount>
      <stageThreshold>-6.5290629863739014e-01</stageThreshold>
      <weakClassifiers>
        <_>
          <internalNodes>
            0 -1 13 6.5588228404521942e-02</internalNodes>
          <leafValues>
            -5.2472525835037231e-01 8.9610391855239868e-01</leafValues></_>
        <_>
          <internalNodes>
            0 -1 5 3.1900750473141670e-03</internalNodes>
          <leafValues>
            4.1404369473457336e-01 -8.0995470285415649e-01</leafValues></_>
        <_>
          <internalNodes>
            0 -1 4 -5.7159413699992001e-06</internalNodes>
          <leafValues>
            6.7954814434051514e-01 -5.2067923545837402e-01</leafValues></_>
        <_>
          <internalNodes>
            0 -1 11 -1.0099471546709538e-03</internalNodes>
          <leafValues>
            9.4192945957183838e-01 -3.5109362006187439e-01</leafValues></_>
        <_>
          <internalNodes>
            0 -1 18 4.0134869515895844e-02</internalNodes>
          <leafValues>
            4.7661456465721130e-01 -8.7067925930023193e-01</leafValues></_></weakClassifiers></_>
    <!-- stage 4 -->
    <_>
      <maxWeakCount>3</maxWeakCount>
      <stageThreshold>-6.2606489658355713e-01</stageThreshold>
      <weakClassifiers>
        <_>
          <internalNodes>
            0 -1 7 -6.1126804212108254e-05</internalNodes>
          <leafValues>
            -6.9001489877700806e-01 1.</leafValues></_>
        <_>
          <internalNodes>
            0 -1 19 -1.6314591048285365e-03</internalNodes>
          <leafValues>
            -6.1683666706085205e-01 7.6620280742645264e-01</leafValues></_>
        <_>
          <internalNodes>
            0 -1 17 -2.9749342502327636e-05</internalNodes>
          <leafValues>
            -7.0225280523300171e-01 7.5998097658157349e-01</leafValues></_></weakClassifiers></_>
    <!-- stage 5 -->
    <_>
      <maxWeakCount>3</maxWeakCount>
      <stageThreshold>-7.0710206031799316e-01</stageThreshold>
      <weakClassifiers>
        <_>
          <internalNodes>
            0 -1 2 5.9675667434930801e-03</internalNodes>
          <leafValues>
            1. -8.9949750900268555e-01</leafValues></_>
        <_>
          <internalNodes>
            0 -1 21 -1.1428055586293340e-04</internalNodes>
          <leafValues>
            -8.0760455131530762e-01 1.</leafValues></_>
        <_>
          <internalNodes>
            0 -1 8 1.2461644655559212e-04</internalNodes>
          <leafValues>
            1. -7.4547922611236572e-01</leafValues></_></weakClassifiers></_></stages>
  <features>
    <_>
      <rects>
        <_>
          0 15 36 5 -1.</_>
        <_>
          12 15 12 5 3.</_></rects>
      <tilted>0</tilted></_>
    <_>
      <rects>
        <_>
          1 0 3 30 -1.</_>
        <_>
          1 15 3 15 2.</_></rects>
      <tilted>0</tilted></_>
    <_>
      <rects>
        <_>
          5 22 30 1 -1.</_>
        <_>
          20 22 15 1 2.</_></rects>
      <tilted>0</tilted></_>
    <_>
      <rects>
        <_>
          6 2 11 36 -1.</_>
        <_>
          6 20 11 18 2.</_></rects>
      <tilted>0</tilted></_>
    <_>
      <rects>
        <_>
          8 9 2 6 -1.</_>
        <_>
          8 12 2 3 2.</_></rects>
      <tilted>0</tilted></_>
    <_>
      <rects>
        <_>
          8 23 30 1 -1.</_>
        <_>
          23 23 15 1 2.</_></rects>
      <tilted>0</tilted></_>
    <_>
      <rects>
        <_>
          10 25 28 3 -1.</_>
        <_>
          24 25 14 3 2.</_></rects>
      <tilted>0</tilted></_>
    <_>
      <rects>
        <_>
          10 32 3 4 -1.</_>
        <_>
          11 32 1 4 3.</_></rects>
      <tilted>0</tilted></_>
    <_>
      <rects>
        <_>
          11 37 4 1 -1.</_>
        <_>
          13 37 2 1 2.</_></rects>
      <tilted>0</tilted></_>
    <_>
      <rects>
        <_>
          12 5 10 1 -1.</_>
        <_>
          17 5 5 1 2.</_></rects>
      <tilted>0</tilted></_>
    <_>
      <rects>
        <_>
          12 10 23 28 -1.</_>
        <_>
          12 24 23 14 2.</_></rects>
      <tilted>0</tilted></_>
    <_>
      <rects>
        <_>
          12 20 19 2 -1.</_>
        <_>
          12 21 19 1 2.</_></rects>
      <tilted>0</tilted></_>
    <_>
      <rects>
        <_>
          13 5 8 1 -1.</_>
        <_>
          17 5 4 1 2.</_></rects>
      <tilted>0</tilted></_>
    <_>
      <rects>
        <_>
          13 17 24 20 -1.</_>
        <_>
          13 17 12 10 2.</_>
        <_>
          25 27 12 10 2.</_></rects>
      <tilted>0</tilted></_>
    <_>
      <rects>
        <_>
          15 37 14 1 -1.</_>
        <_>
          22 37 7 1 2.</_></rects>
      <tilted>0</tilted></_>
    <_>
      <rects>
        <_>
          16 9 11 18 -1.</_>
        <_>
          16 15 11 6 3.</_></rects>
      <tilted>0</tilted></_>
    <_>
      <rects>
        <_>
          17 17 16 14 -1.</_>
        <_>
          25 17 8 14 2.</_></rects>
      <tilted>0</tilted></_>
    <_>
      <rects>
        <_>
          19 37 2 1 -1.</_>
        <_>
          20 37 1 1 2.</_></rects>
      <tilted>0</tilted></_>
    <_>
      <rects>
        <_>
          27 1 7 34 -1.</_>
        <_>
          27 18 7 17 2.</_></rects>
      <tilted>0</tilted></_>
    <_>
      <rects>
        <_>
          33 17 1 18 -1.</_>
        <_>
          33 26 1 9 2.</_></rects>
      <tilted>0</tilted></_>
    <_>
      <rects>
        <_>
          34 6 1 8 -1.</_>
        <_>
          34 10 1 4 2.</_></rects>
      <tilted>0</tilted></_>
    <_>
      <rects>
        <_>
          35 23 2 3 -1.</_>
        <_>
          35 24 2 1 3.</_></rects>
      <tilted>0</tilted></_>
    <_>
      <rects>
        <_>
          35 31 2 4 -1.</_>
        <_>
          35 33 2 2 2.</_></rects>
      <tilted>0</tilted></_>
    <_>
      <rects>
        <_>
          37 0 1 12 -1.</_>
        <_>
          37 6 1 6 2.</_></rects>
      <tilted>0</tilted></_>
    <_>
      <rects>
        <_>
          37 20 1 6 -1.</_>
        <_>
          37 22 1 2 3.</_></rects>
      <tilted>0</tilted></_></features></cascade>
</opencv_storage>
