<?xml version="1.0"?>
<opencv_storage>
<cascade>
  <stageType>BOOST</stageType>
  <featureType>HAAR</featureType>
  <height>38</height>
  <width>38</width>
  <stageParams>
    <boostType>GAB</boostType>
    <minHitRate>9.9500000476837158e-01</minHitRate>
    <maxFalseAlarm>5.0000000000000000e-01</maxFalseAlarm>
    <weightTrimRate>9.4999998807907104e-01</weightTrimRate>
    <maxDepth>1</maxDepth>
    <maxWeakCount>100</maxWeakCount></stageParams>
  <featureParams>
    <maxCatCount>0</maxCatCount>
    <featSize>1</featSize>
    <mode>BASIC</mode></featureParams>
  <stageNum>5</stageNum>
  <stages>
    <!-- stage 0 -->
    <_>
      <maxWeakCount>3</maxWeakCount>
      <stageThreshold>-7.0463401079177856e-01</stageThreshold>
      <weakClassifiers>
        <_>
          <internalNodes>
            0 -1 1 4.6536378562450409e-02</internalNodes>
          <leafValues>
            -9.2021274566650391e-01 8.0429595708847046e-01</leafValues></_>
        <_>
          <internalNodes>
            0 -1 2 -2.8213903307914734e-01</internalNodes>
          <leafValues>
            9.8461824655532837e-01 -6.3362252712249756e-01</leafValues></_>
        <_>
          <internalNodes>
            0 -1 13 2.1811280748806894e-04</internalNodes>
          <leafValues>
            8.4920126199722290e-01 -6.4272421598434448e-01</leafValues></_></weakClassifiers></_>
    <!-- stage 1 -->
    <_>
      <maxWeakCount>3</maxWeakCount>
      <stageThreshold>-5.9390980005264282e-01</stageThreshold>
      <weakClassifiers>
        <_>
          <internalNodes>
            0 -1 5 3.8771592080593109e-02</internalNodes>
          <leafValues>
            -6.3333332538604736e-01 9.3650794029235840e-01</leafValues></_>
        <_>
          <internalNodes>
            0 -1 0 5.4717265069484711e-02</internalNodes>
          <leafValues>
            -6.9503825902938843e-01 7.3496603965759277e-01</leafValues></_>
        <_>
          <internalNodes>
            0 -1 8 2.1573205012828112e-03</internalNodes>
          <leafValues>
            7.6485991477966309e-01 -6.9554245471954346e-01</leafValues></_></weakClassifiers></_>
    <!-- stage 2 -->
    <_>
      <maxWeakCount>3</maxWeakCount>
      <stageThreshold>-7.5518840551376343e-01</stageThreshold>
      <weakClassifiers>
        <_>
          <internalNodes>
            0 -1 6 2.4840511381626129e-02</internalNodes>
          <leafValues>
            -7.0975059270858765e-01 8.5875707864761353e-01</leafValues></_>
        <_>
          <internalNodes>
            0 -1 11 -3.0467428732663393e-03</internalNodes>
          <leafValues>
            -7.6793199777603149e-01 8.0800712108612061e-01</leafValues></_>
        <_>
          <internalNodes>
            0 -1 4 1.9263213034719229e-03</internalNodes>
          <leafValues>
            7.2249418497085571e-01 -8.0013072490692139e-01</leafValues></_></weakClassifiers></_>
    <!-- stage 3 -->
    <_>
      <maxWeakCount>3</maxWeakCount>
      <stageThreshold>-7.6197677850723267e-01</stageThreshold>
      <weakClassifiers>
        <_>
          <internalNodes>
            0 -1 7 1.7819899367168546e-03</internalNodes>
          <leafValues>
            1. -7.4782609939575195e-01</leafValues></_>
        <_>
          <internalNodes>
            0 -1 9 2.6482614339329302e-04</internalNodes>
          <leafValues>
            8.9391916990280151e-01 -7.4498271942138672e-01</leafValues></_>
        <_>
          <internalNodes>
            0 -1 12 -5.3644401486963034e-04</internalNodes>
          <leafValues>
            -9.0806978940963745e-01 7.7242225408554077e-01</leafValues></_></weakClassifiers></_>
    <!-- stage 4 -->
    <_>
      <maxWeakCount>2</maxWeakCount>
      <stageThreshold>4.3795619159936905e-02</stageThreshold>
      <weakClassifiers>
        <_>
          <internalNodes>
            0 -1 3 -5.6183904409408569e-02</internalNodes>
          <leafValues>
            -9.5620435476303101e-01 1.</leafValues></_>
        <_>
          <internalNodes>
            0 -1 10 1.8256057053804398e-02</internalNodes>
          <leafValues>
            1. -9.4444406032562256e-01</leafValues></_></weakClassifiers></_></stages>
  <features>
    <_>
      <rects>
        <_>
          0 6 30 24 -1.</_>
        <_>
          10 6 10 24 3.</_></rects>
      <tilted>0</tilted></_>
    <_>
      <rects>
        <_>
          0 11 36 20 -1.</_>
        <_>
          12 11 12 20 3.</_></rects>
      <tilted>0</tilted></_>
    <_>
      <rects>
        <_>
          1 10 34 28 -1.</_>
        <_>
          1 24 34 14 2.</_></rects>
      <tilted>0</tilted></_>
    <_>
      <rects>
        <_>
          8 0 30 6 -1.</_>
        <_>
          18 0 10 6 3.</_></rects>
      <tilted>0</tilted></_>
    <_>
      <rects>
        <_>
          12 8 18 24 -1.</_>
        <_>
          21 8 9 24 2.</_></rects>
      <tilted>0</tilted></_>
    <_>
      <rects>
        <_>
          15 3 12 27 -1.</_>
        <_>
          15 12 12 9 3.</_></rects>
      <tilted>0</tilted></_>
    <_>
      <rects>
        <_>
          15 3 13 27 -1.</_>
        <_>
          15 12 13 9 3.</_></rects>
      <tilted>0</tilted></_>
    <_>
      <rects>
        <_>
          24 34 14 3 -1.</_>
        <_>
          31 34 7 3 2.</_></rects>
      <tilted>0</tilted></_>
    <_>
      <rects>
        <_>
          25 35 10 3 -1.</_>
        <_>
          30 35 5 3 2.</_></rects>
      <tilted>0</tilted></_>
    <_>
      <rects>
        <_>
          26 16 6 4 -1.</_>
        <_>
          29 16 3 4 2.</_></rects>
      <tilted>0</tilted></_>
    <_>
      <rects>
        <_>
          28 8 8 29 -1.</_>
        <_>
          32 8 4 29 2.</_></rects>
      <tilted>0</tilted></_>
    <_>
      <rects>
        <_>
          32 28 6 8 -1.</_>
        <_>
          32 32 6 4 2.</_></rects>
      <tilted>0</tilted></_>
    <_>
      <rects>
        <_>
          36 30 1 6 -1.</_>
        <_>
          36 33 1 3 2.</_></rects>
      <tilted>0</tilted></_>
    <_>
      <rects>
        <_>
          37 0 1 12 -1.</_>
        <_>
          37 6 1 6 2.</_></rects>
      <tilted>0</tilted></_></features></cascade>
</opencv_storage>
