<?xml version="1.0"?>
<opencv_storage>
<cascade>
  <stageType>BOOST</stageType>
  <featureType>HAAR</featureType>
  <height>38</height>
  <width>38</width>
  <stageParams>
    <boostType>GAB</boostType>
    <minHitRate>9.9500000476837158e-01</minHitRate>
    <maxFalseAlarm>5.0000000000000000e-01</maxFalseAlarm>
    <weightTrimRate>9.4999998807907104e-01</weightTrimRate>
    <maxDepth>1</maxDepth>
    <maxWeakCount>100</maxWeakCount></stageParams>
  <featureParams>
    <maxCatCount>0</maxCatCount>
    <featSize>1</featSize>
    <mode>BASIC</mode></featureParams>
  <stageNum>4</stageNum>
  <stages>
    <!-- stage 0 -->
    <_>
      <maxWeakCount>2</maxWeakCount>
      <stageThreshold>-2.1956427395343781e-01</stageThreshold>
      <weakClassifiers>
        <_>
          <internalNodes>
            0 -1 3 1.1224119924008846e-02</internalNodes>
          <leafValues>
            -9.4505494832992554e-01 7.8475338220596313e-01</leafValues></_>
        <_>
          <internalNodes>
            0 -1 6 7.6413732022047043e-03</internalNodes>
          <leafValues>
            -7.1046513319015503e-01 7.2549068927764893e-01</leafValues></_></weakClassifiers></_>
    <!-- stage 1 -->
    <_>
      <maxWeakCount>3</maxWeakCount>
      <stageThreshold>-5.2451723814010620e-01</stageThreshold>
      <weakClassifiers>
        <_>
          <internalNodes>
            0 -1 9 2.1811280748806894e-04</internalNodes>
          <leafValues>
            8.9285713434219360e-01 -6.2025314569473267e-01</leafValues></_>
        <_>
          <internalNodes>
            0 -1 5 -2.5781042873859406e-02</internalNodes>
          <leafValues>
            8.5161954164505005e-01 -6.1015152931213379e-01</leafValues></_>
        <_>
          <internalNodes>
            0 -1 8 1.6798638971522450e-03</internalNodes>
          <leafValues>
            7.0588743686676025e-01 -7.1588122844696045e-01</leafValues></_></weakClassifiers></_>
    <!-- stage 2 -->
    <_>
      <maxWeakCount>4</maxWeakCount>
      <stageThreshold>-3.7817159295082092e-01</stageThreshold>
      <weakClassifiers>
        <_>
          <internalNodes>
            0 -1 7 1.3874679803848267e-02</internalNodes>
          <leafValues>
            5.7055217027664185e-01 -8.5046726465225220e-01</leafValues></_>
        <_>
          <internalNodes>
            0 -1 4 3.4130234271287918e-03</internalNodes>
          <leafValues>
            5.6051218509674072e-01 -8.7985438108444214e-01</leafValues></_>
        <_>
          <internalNodes>
            0 -1 9 2.1811280748806894e-04</internalNodes>
          <leafValues>
            7.4562758207321167e-01 -6.4204096794128418e-01</leafValues></_>
        <_>
          <internalNodes>
            0 -1 2 -1.5370351262390614e-02</internalNodes>
          <leafValues>
            -9.6451032161712646e-01 5.7317161560058594e-01</leafValues></_></weakClassifiers></_>
    <!-- stage 3 -->
    <_>
      <maxWeakCount>2</maxWeakCount>
      <stageThreshold>4.3795619159936905e-02</stageThreshold>
      <weakClassifiers>
        <_>
          <internalNodes>
            0 -1 0 -8.3107501268386841e-04</internalNodes>
          <leafValues>
            -9.5620435476303101e-01 1.</leafValues></_>
        <_>
          <internalNodes>
            0 -1 1 -1.9757292466238141e-04</internalNodes>
          <leafValues>
            -9.0909028053283691e-01 1.</leafValues></_></weakClassifiers></_></stages>
  <features>
    <_>
      <rects>
        <_>
          0 1 8 2 -1.</_>
        <_>
          0 1 4 1 2.</_>
        <_>
          4 2 4 1 2.</_></rects>
      <tilted>0</tilted></_>
    <_>
      <rects>
        <_>
          0 2 4 2 -1.</_>
        <_>
          2 2 2 2 2.</_></rects>
      <tilted>0</tilted></_>
    <_>
      <rects>
        <_>
          0 7 22 26 -1.</_>
        <_>
          11 7 11 26 2.</_></rects>
      <tilted>0</tilted></_>
    <_>
      <rects>
        <_>
          0 15 36 16 -1.</_>
        <_>
          12 15 12 16 3.</_></rects>
      <tilted>0</tilted></_>
    <_>
      <rects>
        <_>
          4 1 24 2 -1.</_>
        <_>
          4 1 12 1 2.</_>
        <_>
          16 2 12 1 2.</_></rects>
      <tilted>0</tilted></_>
    <_>
      <rects>
        <_>
          11 16 5 22 -1.</_>
        <_>
          11 27 5 11 2.</_></rects>
      <tilted>0</tilted></_>
    <_>
      <rects>
        <_>
          15 8 13 18 -1.</_>
        <_>
          15 14 13 6 3.</_></rects>
      <tilted>0</tilted></_>
    <_>
      <rects>
        <_>
          26 13 12 19 -1.</_>
        <_>
          32 13 6 19 2.</_></rects>
      <tilted>0</tilted></_>
    <_>
      <rects>
        <_>
          34 24 4 12 -1.</_>
        <_>
          34 28 4 4 3.</_></rects>
      <tilted>0</tilted></_>
    <_>
      <rects>
        <_>
          37 0 1 12 -1.</_>
        <_>
          37 6 1 6 2.</_></rects>
      <tilted>0</tilted></_></features></cascade>
</opencv_storage>
